digraph Tree {
node [shape=box] ;
0 [label="max_mm_prp <= 15984000.0\nmse = 23835.169\nsamples = 209\nvalue = 99.33"] ;
1 [label="max_mm <= 22485.0\nmse = 6732.947\nsamples = 203\nvalue = 78.064"] ;
0 -> 1 [labeldistance=2.5, labelangle=45, headlabel="True"] ;
2 [label="max_mm_prp <= 594000.0\nmse = 1302.164\nsamples = 178\nvalue = 51.753"] ;
1 -> 2 ;
3 [label="max_mm <= 6100.0\nmse = 162.868\nsamples = 124\nvalue = 32.605"] ;
2 -> 3 ;
4 [label="max_mm <= 3750.0\nmse = 26.639\nsamples = 78\nvalue = 24.769"] ;
3 -> 4 ;
5 [label="max_mm <= 1750.0\nmse = 5.38\nsamples = 35\nvalue = 20.143"] ;
4 -> 5 ;
6 [label="min_mm <= 144.0\nmse = 1.722\nsamples = 12\nvalue = 17.667"] ;
5 -> 6 ;
7 [label="mse = 0.0\nsamples = 2\nvalue = 15.0"] ;
6 -> 7 ;
8 [label="log_myct <= 5.592\nmse = 0.36\nsamples = 10\nvalue = 18.2"] ;
6 -> 8 ;
9 [label="mse = 0.188\nsamples = 4\nvalue = 18.75"] ;
8 -> 9 ;
10 [label="mse = 0.139\nsamples = 6\nvalue = 17.833"] ;
8 -> 10 ;
11 [label="max_mm <= 2500.0\nmse = 2.42\nsamples = 23\nvalue = 21.435"] ;
5 -> 11 ;
12 [label="cache <= 6.0\nmse = 1.239\nsamples = 17\nvalue = 20.765"] ;
11 -> 12 ;
13 [label="mse = 0.515\nsamples = 14\nvalue = 20.357"] ;
12 -> 13 ;
14 [label="mse = 0.222\nsamples = 3\nvalue = 22.667"] ;
12 -> 14 ;
15 [label="max_mm_prp <= 123000.0\nmse = 0.889\nsamples = 6\nvalue = 23.333"] ;
11 -> 15 ;
16 [label="mse = 0.188\nsamples = 4\nvalue = 22.75"] ;
15 -> 16 ;
17 [label="mse = 0.25\nsamples = 2\nvalue = 24.5"] ;
15 -> 17 ;
18 [label="log_myct <= 5.043\nmse = 12.342\nsamples = 43\nvalue = 28.535"] ;
4 -> 18 ;
19 [label="max_mm <= 5500.0\nmse = 11.321\nsamples = 18\nvalue = 31.111"] ;
18 -> 19 ;
20 [label="prp <= 19.5\nmse = 3.662\nsamples = 15\nvalue = 29.933"] ;
19 -> 20 ;
21 [label="mse = 0.0\nsamples = 1\nvalue = 26.0"] ;
20 -> 21 ;
22 [label="mse = 2.74\nsamples = 14\nvalue = 30.214"] ;
20 -> 22 ;
23 [label="min_ch <= 3.5\nmse = 8.0\nsamples = 3\nvalue = 37.0"] ;
19 -> 23 ;
24 [label="mse = 0.0\nsamples = 2\nvalue = 35.0"] ;
23 -> 24 ;
25 [label="mse = 0.0\nsamples = 1\nvalue = 41.0"] ;
23 -> 25 ;
26 [label="cache <= 6.0\nmse = 4.858\nsamples = 25\nvalue = 26.68"] ;
18 -> 26 ;
27 [label="log_myct <= 5.613\nmse = 2.69\nsamples = 20\nvalue = 25.9"] ;
26 -> 27 ;
28 [label="mse = 0.469\nsamples = 9\nvalue = 24.444"] ;
27 -> 28 ;
29 [label="mse = 1.355\nsamples = 11\nvalue = 27.091"] ;
27 -> 29 ;
30 [label="min_ch <= 2.0\nmse = 1.36\nsamples = 5\nvalue = 29.8"] ;
26 -> 30 ;
31 [label="mse = 0.25\nsamples = 2\nvalue = 28.5"] ;
30 -> 31 ;
32 [label="mse = 0.222\nsamples = 3\nvalue = 30.667"] ;
30 -> 32 ;
33 [label="cache <= 27.0\nmse = 113.227\nsamples = 46\nvalue = 45.891"] ;
3 -> 33 ;
34 [label="max_mm <= 10000.0\nmse = 55.383\nsamples = 37\nvalue = 42.541"] ;
33 -> 34 ;
35 [label="max_mm_prp <= 206300.0\nmse = 24.772\nsamples = 34\nvalue = 40.853"] ;
34 -> 35 ;
36 [label="min_mm <= 1750.0\nmse = 5.84\nsamples = 10\nvalue = 35.6"] ;
35 -> 36 ;
37 [label="mse = 1.0\nsamples = 8\nvalue = 34.5"] ;
36 -> 37 ;
38 [label="mse = 1.0\nsamples = 2\nvalue = 40.0"] ;
36 -> 38 ;
39 [label="log_myct <= 4.783\nmse = 16.373\nsamples = 24\nvalue = 43.042"] ;
35 -> 39 ;
40 [label="mse = 9.787\nsamples = 13\nvalue = 45.538"] ;
39 -> 40 ;
41 [label="mse = 8.083\nsamples = 11\nvalue = 40.091"] ;
39 -> 41 ;
42 [label="log_myct <= 3.622\nmse = 4.222\nsamples = 3\nvalue = 61.667"] ;
34 -> 42 ;
43 [label="mse = 0.0\nsamples = 1\nvalue = 59.0"] ;
42 -> 43 ;
44 [label="min_ch <= 2.5\nmse = 1.0\nsamples = 2\nvalue = 63.0"] ;
42 -> 44 ;
45 [label="mse = 0.0\nsamples = 1\nvalue = 62.0"] ;
44 -> 45 ;
46 [label="mse = 0.0\nsamples = 1\nvalue = 64.0"] ;
44 -> 46 ;
47 [label="min_mm <= 2310.0\nmse = 115.111\nsamples = 9\nvalue = 59.667"] ;
33 -> 47 ;
48 [label="prp <= 43.5\nmse = 35.061\nsamples = 7\nvalue = 54.714"] ;
47 -> 48 ;
49 [label="mse = 0.0\nsamples = 1\nvalue = 67.0"] ;
48 -> 49 ;
50 [label="min_mm <= 1500.0\nmse = 11.556\nsamples = 6\nvalue = 52.667"] ;
48 -> 50 ;
51 [label="mse = 2.25\nsamples = 2\nvalue = 48.5"] ;
50 -> 51 ;
52 [label="mse = 3.188\nsamples = 4\nvalue = 54.75"] ;
50 -> 52 ;
53 [label="max_mm_prp <= 371680.0\nmse = 9.0\nsamples = 2\nvalue = 77.0"] ;
47 -> 53 ;
54 [label="mse = 0.0\nsamples = 1\nvalue = 74.0"] ;
53 -> 54 ;
55 [label="mse = 0.0\nsamples = 1\nvalue = 80.0"] ;
53 -> 55 ;
56 [label="max_mm_prp <= 1168000.0\nmse = 1143.09\nsamples = 54\nvalue = 95.722"] ;
2 -> 56 ;
57 [label="cache <= 98.0\nmse = 298.087\nsamples = 28\nvalue = 73.643"] ;
56 -> 57 ;
58 [label="max_mm <= 14000.0\nmse = 149.75\nsamples = 25\nvalue = 69.36"] ;
57 -> 58 ;
59 [label="log_myct <= 4.263\nmse = 110.059\nsamples = 13\nvalue = 61.308"] ;
58 -> 59 ;
60 [label="min_ch <= 9.0\nmse = 28.56\nsamples = 5\nvalue = 71.2"] ;
59 -> 60 ;
61 [label="mse = 4.222\nsamples = 3\nvalue = 67.333"] ;
60 -> 61 ;
62 [label="mse = 9.0\nsamples = 2\nvalue = 77.0"] ;
60 -> 62 ;
63 [label="max_mm_prp <= 1080000.0\nmse = 61.609\nsamples = 8\nvalue = 55.125"] ;
59 -> 63 ;
64 [label="mse = 5.918\nsamples = 7\nvalue = 52.286"] ;
63 -> 64 ;
65 [label="mse = 0.0\nsamples = 1\nvalue = 75.0"] ;
63 -> 65 ;
66 [label="cache <= 10.0\nmse = 46.41\nsamples = 12\nvalue = 78.083"] ;
58 -> 66 ;
67 [label="min_mm <= 1500.0\nmse = 18.139\nsamples = 6\nvalue = 72.833"] ;
66 -> 67 ;
68 [label="mse = 20.25\nsamples = 2\nvalue = 68.5"] ;
67 -> 68 ;
69 [label="mse = 3.0\nsamples = 4\nvalue = 75.0"] ;
67 -> 69 ;
70 [label="min_ch <= 4.5\nmse = 19.556\nsamples = 6\nvalue = 83.333"] ;
66 -> 70 ;
71 [label="mse = 13.0\nsamples = 4\nvalue = 81.0"] ;
70 -> 71 ;
72 [label="mse = 0.0\nsamples = 2\nvalue = 88.0"] ;
70 -> 72 ;
73 [label="max_mm_prp <= 658940.0\nmse = 107.556\nsamples = 3\nvalue = 109.333"] ;
57 -> 73 ;
74 [label="mse = 0.0\nsamples = 1\nvalue = 124.0"] ;
73 -> 74 ;
75 [label="mse = 0.0\nsamples = 2\nvalue = 102.0"] ;
73 -> 75 ;
76 [label="cache <= 96.5\nmse = 962.712\nsamples = 26\nvalue = 119.5"] ;
56 -> 76 ;
77 [label="min_mm <= 4620.0\nmse = 469.792\nsamples = 23\nvalue = 111.348"] ;
76 -> 77 ;
78 [label="cache <= 48.0\nmse = 280.56\nsamples = 15\nvalue = 99.8"] ;
77 -> 78 ;
79 [label="log_myct <= 3.373\nmse = 180.889\nsamples = 9\nvalue = 89.333"] ;
78 -> 79 ;
80 [label="mse = 56.25\nsamples = 2\nvalue = 108.5"] ;
79 -> 80 ;
81 [label="mse = 81.551\nsamples = 7\nvalue = 83.857"] ;
79 -> 81 ;
82 [label="min_mm <= 3000.0\nmse = 19.25\nsamples = 6\nvalue = 115.5"] ;
78 -> 82 ;
83 [label="mse = 9.0\nsamples = 2\nvalue = 110.0"] ;
82 -> 83 ;
84 [label="mse = 1.688\nsamples = 4\nvalue = 118.25"] ;
82 -> 84 ;
85 [label="log_myct <= 3.313\nmse = 105.75\nsamples = 8\nvalue = 133.0"] ;
77 -> 85 ;
86 [label="mse = 0.0\nsamples = 1\nvalue = 113.0"] ;
85 -> 86 ;
87 [label="cache <= 56.0\nmse = 55.551\nsamples = 7\nvalue = 135.857"] ;
85 -> 87 ;
88 [label="mse = 20.8\nsamples = 5\nvalue = 132.0"] ;
87 -> 88 ;
89 [label="mse = 12.25\nsamples = 2\nvalue = 145.5"] ;
87 -> 89 ;
90 [label="min_ch <= 8.5\nmse = 326.0\nsamples = 3\nvalue = 182.0"] ;
76 -> 90 ;
91 [label="mse = 0.0\nsamples = 1\nvalue = 157.0"] ;
90 -> 91 ;
92 [label="min_mm <= 2128.0\nmse = 20.25\nsamples = 2\nvalue = 194.5"] ;
90 -> 92 ;
93 [label="mse = 0.0\nsamples = 1\nvalue = 199.0"] ;
92 -> 93 ;
94 [label="mse = 0.0\nsamples = 1\nvalue = 190.0"] ;
92 -> 94 ;
95 [label="prp <= 292.0\nmse = 5376.32\nsamples = 25\nvalue = 265.4"] ;
1 -> 95 ;
96 [label="log_myct <= 3.78\nmse = 1804.427\nsamples = 15\nvalue = 216.8"] ;
95 -> 96 ;
97 [label="cache <= 48.0\nmse = 903.25\nsamples = 8\nvalue = 248.0"] ;
96 -> 97 ;
98 [label="max_ch <= 28.0\nmse = 773.44\nsamples = 5\nvalue = 232.4"] ;
97 -> 98 ;
99 [label="max_mm <= 28000.0\nmse = 342.25\nsamples = 2\nvalue = 201.5"] ;
98 -> 99 ;
100 [label="mse = 0.0\nsamples = 1\nvalue = 183.0"] ;
99 -> 100 ;
101 [label="mse = 0.0\nsamples = 1\nvalue = 220.0"] ;
99 -> 101 ;
102 [label="mse = 0.0\nsamples = 3\nvalue = 253.0"] ;
98 -> 102 ;
103 [label="log_myct <= 3.663\nmse = 38.0\nsamples = 3\nvalue = 274.0"] ;
97 -> 103 ;
104 [label="max_mm <= 28000.0\nmse = 9.0\nsamples = 2\nvalue = 278.0"] ;
103 -> 104 ;
105 [label="mse = 0.0\nsamples = 1\nvalue = 281.0"] ;
104 -> 105 ;
106 [label="mse = 0.0\nsamples = 1\nvalue = 275.0"] ;
104 -> 106 ;
107 [label="mse = 0.0\nsamples = 1\nvalue = 266.0"] ;
103 -> 107 ;
108 [label="max_mm_prp <= 6352000.0\nmse = 450.408\nsamples = 7\nvalue = 181.143"] ;
96 -> 108 ;
109 [label="log_myct <= 3.892\nmse = 116.583\nsamples = 6\nvalue = 173.5"] ;
108 -> 109 ;
110 [label="mse = 0.0\nsamples = 1\nvalue = 151.0"] ;
109 -> 110 ;
111 [label="max_ch <= 23.0\nmse = 18.4\nsamples = 5\nvalue = 178.0"] ;
109 -> 111 ;
112 [label="cache <= 48.0\nmse = 4.0\nsamples = 2\nvalue = 173.0"] ;
111 -> 112 ;
113 [label="mse = 0.0\nsamples = 1\nvalue = 175.0"] ;
112 -> 113 ;
114 [label="mse = 0.0\nsamples = 1\nvalue = 171.0"] ;
112 -> 114 ;
115 [label="max_ch <= 40.0\nmse = 0.222\nsamples = 3\nvalue = 181.333"] ;
111 -> 115 ;
116 [label="mse = 0.0\nsamples = 1\nvalue = 182.0"] ;
115 -> 116 ;
117 [label="mse = 0.0\nsamples = 2\nvalue = 181.0"] ;
115 -> 117 ;
118 [label="mse = 0.0\nsamples = 1\nvalue = 227.0"] ;
108 -> 118 ;
119 [label="min_ch <= 12.0\nmse = 1876.81\nsamples = 10\nvalue = 338.3"] ;
95 -> 119 ;
120 [label="prp <= 417.5\nmse = 1114.188\nsamples = 4\nvalue = 294.25"] ;
119 -> 120 ;
121 [label="log_myct <= 3.407\nmse = 104.222\nsamples = 3\nvalue = 275.667"] ;
120 -> 121 ;
122 [label="mse = 0.0\nsamples = 1\nvalue = 290.0"] ;
121 -> 122 ;
123 [label="prp <= 348.0\nmse = 2.25\nsamples = 2\nvalue = 268.5"] ;
121 -> 123 ;
124 [label="mse = 0.0\nsamples = 1\nvalue = 267.0"] ;
123 -> 124 ;
125 [label="mse = 0.0\nsamples = 1\nvalue = 270.0"] ;
123 -> 125 ;
126 [label="mse = 0.0\nsamples = 1\nvalue = 350.0"] ;
120 -> 126 ;
127 [label="min_ch <= 38.0\nmse = 229.222\nsamples = 6\nvalue = 367.667"] ;
119 -> 127 ;
128 [label="max_ch <= 28.0\nmse = 77.688\nsamples = 4\nvalue = 376.25"] ;
127 -> 128 ;
129 [label="mse = 0.0\nsamples = 1\nvalue = 361.0"] ;
128 -> 129 ;
130 [label="min_ch <= 20.0\nmse = 0.222\nsamples = 3\nvalue = 381.333"] ;
128 -> 130 ;
131 [label="mse = 0.0\nsamples = 2\nvalue = 381.0"] ;
130 -> 131 ;
132 [label="mse = 0.0\nsamples = 1\nvalue = 382.0"] ;
130 -> 132 ;
133 [label="max_mm_prp <= 11264000.0\nmse = 90.25\nsamples = 2\nvalue = 350.5"] ;
127 -> 133 ;
134 [label="mse = 0.0\nsamples = 1\nvalue = 341.0"] ;
133 -> 134 ;
135 [label="mse = 0.0\nsamples = 1\nvalue = 360.0"] ;
133 -> 135 ;
136 [label="prp <= 775.5\nmse = 69474.472\nsamples = 6\nvalue = 818.833"] ;
0 -> 136 [labeldistance=2.5, labelangle=-45, headlabel="False"] ;
137 [label="log_myct <= 3.519\nmse = 17441.556\nsamples = 3\nvalue = 592.667"] ;
136 -> 137 ;
138 [label="cache <= 160.0\nmse = 5329.0\nsamples = 2\nvalue = 676.0"] ;
137 -> 138 ;
139 [label="mse = 0.0\nsamples = 1\nvalue = 749.0"] ;
138 -> 139 ;
140 [label="mse = 0.0\nsamples = 1\nvalue = 603.0"] ;
138 -> 140 ;
141 [label="mse = 0.0\nsamples = 1\nvalue = 426.0"] ;
137 -> 141 ;
142 [label="27 <= 0.5\nmse = 19204.667\nsamples = 3\nvalue = 1045.0"] ;
136 -> 142 ;
143 [label="mse = 0.0\nsamples = 1\nvalue = 1238.0"] ;
142 -> 143 ;
144 [label="cache <= 112.0\nmse = 870.25\nsamples = 2\nvalue = 948.5"] ;
142 -> 144 ;
145 [label="mse = 0.0\nsamples = 1\nvalue = 919.0"] ;
144 -> 145 ;
146 [label="mse = 0.0\nsamples = 1\nvalue = 978.0"] ;
144 -> 146 ;
}